
\data\
ngram 1=13
ngram 2=120

\1-grams:
-4.865157	</enc>
-0.826948	</s>
-99	<s>	-3.000405
-1.01858	a	2.097466
-0.9032819	b	1.982319
-1.16689	c	2.245494
-1.382956	d	2.460945
-0.9314041	e	2.010415
-0.8613667	f	1.940463
-0.9853207	g	2.06426
-0.9375787	h	2.016564
-2.136866	i	3.20758
-1.399353	j	2.477282

\2-grams:
-0.3049561	<s> a
-0.5911352	<s> b
-0.8998289	<s> c
-1.209155	<s> d
-1.508833	<s> e
-1.843957	<s> f
-2.060743	<s> g
-2.418887	<s> h
-2.743405	<s> i
-3.194342	<s> j
-1.493118	a </s>
-1.284043	a a
-1.13699	a b
-0.9422103	a c
-2.252786	a d
-1.207028	a e
-0.3941148	a f
-0.663581	a g
-1.74839	a h
-1.934027	a i
-2.030937	a j
-0.8738478	b </s>
-1.614597	b a
-1.496093	b b
-1.251207	b c
-1.994809	b d
-0.5841802	b e
-0.762261	b f
-0.6950579	b g
-1.138898	b h
-2.419078	b i
-1.509254	b j
-0.6977396	c </s>
-1.418017	c a
-0.8153371	c b
-1.164125	c c
-2.280844	c d
-0.7341984	c e
-0.8110218	c f
-0.8700666	c g
-1.430606	c h
-2.299327	c i
-1.791823	c j
-0.601127	d </s>
-1.576373	d a
-1.263761	d b
-0.8328204	d c
-1.445604	d d
-1.501122	d e
-0.8809381	d f
-1.028964	d g
-0.7501225	d h
-2.014241	d i
-1.424415	d j
-0.6636524	e </s>
-2.103749	e a
-1.900505	e b
-1.977062	e c
-1.192849	e d
-0.9000666	e e
-0.6183019	e f
-1.002934	e g
-0.8547476	e h
-2.305076	e i
-1.120166	e j
-0.9929669	f </s>
-1.466408	f a
-0.555655	f b
-1.103963	f c
-1.654341	f d
-0.8484921	f e
-1.423269	f f
-1.007531	f g
-0.7952466	f h
-2.710822	f i
-1.3565	f j
-0.8515145	g </s>
-1.568139	g a
-0.7330562	g b
-1.144197	g c
-1.558996	g d
-0.8488609	g e
-0.8636602	g f
-1.471229	g g
-0.7997216	g h
-1.939207	g i
-1.193937	g j
-0.4932514	h </s>
-1.970896	h a
-1.696849	h b
-2.358495	h c
-1.014912	h d
-1.151193	h e
-1.186682	h f
-1.090633	h g
-0.6093953	h h
-1.7694	h i
-1.180704	h j
-0.537602	i </s>
-1.49485	i a
-0.8013429	i b
-1.30103	i c
-0.928118	i d
-0.935542	i e
-1.585027	i f
-0.9829667	i g
-1.236572	i h
-2.39794	i i
-1.657577	i j
-0.5332929	j </s>
-2.128238	j a
-1.838203	j b
-2.387875	j c
-1.117514	j d
-1.286253	j e
-1.024434	j f
-0.9852229	j g
-0.5835496	j h
-1.795799	j i
-1.130415	j j

\end\
